digraph Tree {
node [shape=box, style="filled, rounded", color="black", fontname=helvetica] ;
edge [fontname=helvetica] ;
0 [label="sex_male <= 0.5\ngini = 0.467\nsamples = 916\nvalue = [576, 340]\nclass = survive", fillcolor="#f4cbae"] ;
1 [label="pclass <= 2.5\ngini = 0.403\nsamples = 315\nvalue = [88, 227]\nclass = died", fillcolor="#86c3ef"] ;
0 -> 1 [labeldistance=2.5, labelangle=45, headlabel="True"] ;
2 [label="fare <= 31.681\ngini = 0.14\nsamples = 171\nvalue = [13, 158]\nclass = died", fillcolor="#49a5e7"] ;
1 -> 2 ;
3 [label="fare <= 30.84\ngini = 0.256\nsamples = 73\nvalue = [11, 62]\nclass = died", fillcolor="#5caeea"] ;
2 -> 3 ;
4 [label="gini = 0.239\nsamples = 72\nvalue = [10, 62]\nclass = died", fillcolor="#59ade9"] ;
3 -> 4 ;
5 [label="gini = 0.0\nsamples = 1\nvalue = [1, 0]\nclass = survive", fillcolor="#e58139"] ;
3 -> 5 ;
6 [label="fare <= 149.035\ngini = 0.04\nsamples = 98\nvalue = [2, 96]\nclass = died", fillcolor="#3d9fe6"] ;
2 -> 6 ;
7 [label="gini = 0.0\nsamples = 80\nvalue = [0, 80]\nclass = died", fillcolor="#399de5"] ;
6 -> 7 ;
8 [label="gini = 0.198\nsamples = 18\nvalue = [2, 16]\nclass = died", fillcolor="#52a9e8"] ;
6 -> 8 ;
9 [label="fare <= 23.35\ngini = 0.499\nsamples = 144\nvalue = [75, 69]\nclass = survive", fillcolor="#fdf5ef"] ;
1 -> 9 ;
10 [label="embarked_C <= 0.5\ngini = 0.491\nsamples = 118\nvalue = [51, 67]\nclass = died", fillcolor="#d0e8f9"] ;
9 -> 10 ;
11 [label="gini = 0.499\nsamples = 96\nvalue = [46, 50]\nclass = died", fillcolor="#eff7fd"] ;
10 -> 11 ;
12 [label="gini = 0.351\nsamples = 22\nvalue = [5, 17]\nclass = died", fillcolor="#73baed"] ;
10 -> 12 ;
13 [label="fare <= 31.331\ngini = 0.142\nsamples = 26\nvalue = [24, 2]\nclass = survive", fillcolor="#e78c49"] ;
9 -> 13 ;
14 [label="gini = 0.0\nsamples = 12\nvalue = [12, 0]\nclass = survive", fillcolor="#e58139"] ;
13 -> 14 ;
15 [label="gini = 0.245\nsamples = 14\nvalue = [12, 2]\nclass = survive", fillcolor="#e9965a"] ;
13 -> 15 ;
16 [label="pclass <= 1.5\ngini = 0.305\nsamples = 601\nvalue = [488, 113]\nclass = survive", fillcolor="#eb9e67"] ;
0 -> 16 [labeldistance=2.5, labelangle=-45, headlabel="False"] ;
17 [label="parch <= 1.5\ngini = 0.446\nsamples = 128\nvalue = [85, 43]\nclass = survive", fillcolor="#f2c19d"] ;
16 -> 17 ;
18 [label="fare <= 379.925\ngini = 0.431\nsamples = 121\nvalue = [83, 38]\nclass = survive", fillcolor="#f1bb94"] ;
17 -> 18 ;
19 [label="gini = 0.422\nsamples = 119\nvalue = [83, 36]\nclass = survive", fillcolor="#f0b88f"] ;
18 -> 19 ;
20 [label="gini = 0.0\nsamples = 2\nvalue = [0, 2]\nclass = died", fillcolor="#399de5"] ;
18 -> 20 ;
21 [label="fare <= 206.963\ngini = 0.408\nsamples = 7\nvalue = [2, 5]\nclass = died", fillcolor="#88c4ef"] ;
17 -> 21 ;
22 [label="gini = 0.0\nsamples = 4\nvalue = [0, 4]\nclass = died", fillcolor="#399de5"] ;
21 -> 22 ;
23 [label="gini = 0.444\nsamples = 3\nvalue = [2, 1]\nclass = survive", fillcolor="#f2c09c"] ;
21 -> 23 ;
24 [label="parch <= 0.5\ngini = 0.252\nsamples = 473\nvalue = [403, 70]\nclass = survive", fillcolor="#ea975b"] ;
16 -> 24 ;
25 [label="fare <= 43.998\ngini = 0.231\nsamples = 398\nvalue = [345, 53]\nclass = survive", fillcolor="#e99457"] ;
24 -> 25 ;
26 [label="gini = 0.221\nsamples = 388\nvalue = [339, 49]\nclass = survive", fillcolor="#e99356"] ;
25 -> 26 ;
27 [label="gini = 0.48\nsamples = 10\nvalue = [6, 4]\nclass = survive", fillcolor="#f6d5bd"] ;
25 -> 27 ;
28 [label="pclass <= 2.5\ngini = 0.351\nsamples = 75\nvalue = [58, 17]\nclass = survive", fillcolor="#eda673"] ;
24 -> 28 ;
29 [label="gini = 0.491\nsamples = 23\nvalue = [13, 10]\nclass = survive", fillcolor="#f9e2d1"] ;
28 -> 29 ;
30 [label="gini = 0.233\nsamples = 52\nvalue = [45, 7]\nclass = survive", fillcolor="#e99558"] ;
28 -> 30 ;
}